digraph Tree {
node [shape=box] ;
0 [label="X[2] <= 14.179\ngini = 0.5\nsamples = 848\nvalue = [427, 421]"] ;
1 [label="X[4] <= 0.172\ngini = 0.443\nsamples = 172\nvalue = [57, 115]"] ;
0 -> 1 [labeldistance=2.5, labelangle=45, headlabel="True"] ;
2 [label="X[5] <= 0.14\ngini = 0.485\nsamples = 121\nvalue = [50, 71]"] ;
1 -> 2 ;
3 [label="X[1] <= -0.614\ngini = 0.471\nsamples = 113\nvalue = [43, 70]"] ;
2 -> 3 ;
4 [label="X[4] <= -0.41\ngini = 0.375\nsamples = 44\nvalue = [11, 33]"] ;
3 -> 4 ;
5 [label="X[1] <= -0.686\ngini = 0.095\nsamples = 20\nvalue = [1, 19]"] ;
4 -> 5 ;
6 [label="gini = 0.0\nsamples = 18\nvalue = [0, 18]"] ;
5 -> 6 ;
7 [label="X[1] <= -0.668\ngini = 0.5\nsamples = 2\nvalue = [1, 1]"] ;
5 -> 7 ;
8 [label="gini = 0.0\nsamples = 1\nvalue = [1, 0]"] ;
7 -> 8 ;
9 [label="gini = 0.0\nsamples = 1\nvalue = [0, 1]"] ;
7 -> 9 ;
10 [label="X[1] <= -1.168\ngini = 0.486\nsamples = 24\nvalue = [10, 14]"] ;
4 -> 10 ;
11 [label="X[4] <= -0.257\ngini = 0.499\nsamples = 19\nvalue = [10, 9]"] ;
10 -> 11 ;
12 [label="X[2] <= -2.345\ngini = 0.278\nsamples = 6\nvalue = [5, 1]"] ;
11 -> 12 ;
13 [label="X[3] <= 0.494\ngini = 0.5\nsamples = 2\nvalue = [1, 1]"] ;
12 -> 13 ;
14 [label="gini = 0.0\nsamples = 1\nvalue = [0, 1]"] ;
13 -> 14 ;
15 [label="gini = 0.0\nsamples = 1\nvalue = [1, 0]"] ;
13 -> 15 ;
16 [label="gini = 0.0\nsamples = 4\nvalue = [4, 0]"] ;
12 -> 16 ;
17 [label="X[1] <= -2.211\ngini = 0.473\nsamples = 13\nvalue = [5, 8]"] ;
11 -> 17 ;
18 [label="gini = 0.0\nsamples = 2\nvalue = [2, 0]"] ;
17 -> 18 ;
19 [label="X[1] <= -1.219\ngini = 0.397\nsamples = 11\nvalue = [3, 8]"] ;
17 -> 19 ;
20 [label="X[5] <= -0.103\ngini = 0.198\nsamples = 9\nvalue = [1, 8]"] ;
19 -> 20 ;
21 [label="gini = 0.0\nsamples = 5\nvalue = [0, 5]"] ;
20 -> 21 ;
22 [label="X[5] <= -0.037\ngini = 0.375\nsamples = 4\nvalue = [1, 3]"] ;
20 -> 22 ;
23 [label="gini = 0.0\nsamples = 1\nvalue = [1, 0]"] ;
22 -> 23 ;
24 [label="gini = 0.0\nsamples = 3\nvalue = [0, 3]"] ;
22 -> 24 ;
25 [label="gini = 0.0\nsamples = 2\nvalue = [2, 0]"] ;
19 -> 25 ;
26 [label="gini = 0.0\nsamples = 5\nvalue = [0, 5]"] ;
10 -> 26 ;
27 [label="X[1] <= -0.527\ngini = 0.497\nsamples = 69\nvalue = [32, 37]"] ;
3 -> 27 ;
28 [label="gini = 0.0\nsamples = 6\nvalue = [6, 0]"] ;
27 -> 28 ;
29 [label="X[4] <= -0.446\ngini = 0.485\nsamples = 63\nvalue = [26, 37]"] ;
27 -> 29 ;
30 [label="X[3] <= 0.575\ngini = 0.473\nsamples = 26\nvalue = [16, 10]"] ;
29 -> 30 ;
31 [label="X[2] <= 13.093\ngini = 0.499\nsamples = 21\nvalue = [11, 10]"] ;
30 -> 31 ;
32 [label="X[3] <= 0.538\ngini = 0.488\nsamples = 19\nvalue = [11, 8]"] ;
31 -> 32 ;
33 [label="X[2] <= -3.548\ngini = 0.457\nsamples = 17\nvalue = [11, 6]"] ;
32 -> 33 ;
34 [label="X[1] <= -0.267\ngini = 0.444\nsamples = 6\nvalue = [2, 4]"] ;
33 -> 34 ;
35 [label="gini = 0.0\nsamples = 2\nvalue = [2, 0]"] ;
34 -> 35 ;
36 [label="gini = 0.0\nsamples = 4\nvalue = [0, 4]"] ;
34 -> 36 ;
37 [label="X[1] <= -0.429\ngini = 0.298\nsamples = 11\nvalue = [9, 2]"] ;
33 -> 37 ;
38 [label="gini = 0.0\nsamples = 1\nvalue = [0, 1]"] ;
37 -> 38 ;
39 [label="X[1] <= -0.044\ngini = 0.18\nsamples = 10\nvalue = [9, 1]"] ;
37 -> 39 ;
40 [label="gini = 0.0\nsamples = 7\nvalue = [7, 0]"] ;
39 -> 40 ;
41 [label="X[0] <= 49.746\ngini = 0.444\nsamples = 3\nvalue = [2, 1]"] ;
39 -> 41 ;
42 [label="gini = 0.0\nsamples = 1\nvalue = [0, 1]"] ;
41 -> 42 ;
43 [label="gini = 0.0\nsamples = 2\nvalue = [2, 0]"] ;
41 -> 43 ;
44 [label="gini = 0.0\nsamples = 2\nvalue = [0, 2]"] ;
32 -> 44 ;
45 [label="gini = 0.0\nsamples = 2\nvalue = [0, 2]"] ;
31 -> 45 ;
46 [label="gini = 0.0\nsamples = 5\nvalue = [5, 0]"] ;
30 -> 46 ;
47 [label="X[4] <= 0.029\ngini = 0.394\nsamples = 37\nvalue = [10, 27]"] ;
29 -> 47 ;
48 [label="X[4] <= -0.071\ngini = 0.444\nsamples = 30\nvalue = [10, 20]"] ;
47 -> 48 ;
49 [label="X[3] <= 0.419\ngini = 0.393\nsamples = 26\nvalue = [7, 19]"] ;
48 -> 49 ;
50 [label="gini = 0.0\nsamples = 6\nvalue = [0, 6]"] ;
49 -> 50 ;
51 [label="X[2] <= -3.58\ngini = 0.455\nsamples = 20\nvalue = [7, 13]"] ;
49 -> 51 ;
52 [label="X[2] <= -9.023\ngini = 0.444\nsamples = 6\nvalue = [4, 2]"] ;
51 -> 52 ;
53 [label="gini = 0.0\nsamples = 2\nvalue = [0, 2]"] ;
52 -> 53 ;
54 [label="gini = 0.0\nsamples = 4\nvalue = [4, 0]"] ;
52 -> 54 ;
55 [label="X[2] <= 4.862\ngini = 0.337\nsamples = 14\nvalue = [3, 11]"] ;
51 -> 55 ;
56 [label="gini = 0.0\nsamples = 8\nvalue = [0, 8]"] ;
55 -> 56 ;
57 [label="X[3] <= 0.464\ngini = 0.5\nsamples = 6\nvalue = [3, 3]"] ;
55 -> 57 ;
58 [label="gini = 0.0\nsamples = 2\nvalue = [2, 0]"] ;
57 -> 58 ;
59 [label="X[2] <= 5.439\ngini = 0.375\nsamples = 4\nvalue = [1, 3]"] ;
57 -> 59 ;
60 [label="gini = 0.0\nsamples = 1\nvalue = [1, 0]"] ;
59 -> 60 ;
61 [label="gini = 0.0\nsamples = 3\nvalue = [0, 3]"] ;
59 -> 61 ;
62 [label="X[0] <= 48.469\ngini = 0.375\nsamples = 4\nvalue = [3, 1]"] ;
48 -> 62 ;
63 [label="gini = 0.0\nsamples = 1\nvalue = [0, 1]"] ;
62 -> 63 ;
64 [label="gini = 0.0\nsamples = 3\nvalue = [3, 0]"] ;
62 -> 64 ;
65 [label="gini = 0.0\nsamples = 7\nvalue = [0, 7]"] ;
47 -> 65 ;
66 [label="X[2] <= -13.079\ngini = 0.219\nsamples = 8\nvalue = [7, 1]"] ;
2 -> 66 ;
67 [label="gini = 0.0\nsamples = 1\nvalue = [0, 1]"] ;
66 -> 67 ;
68 [label="gini = 0.0\nsamples = 7\nvalue = [7, 0]"] ;
66 -> 68 ;
69 [label="X[1] <= 0.543\ngini = 0.237\nsamples = 51\nvalue = [7, 44]"] ;
1 -> 69 ;
70 [label="X[2] <= -8.397\ngini = 0.059\nsamples = 33\nvalue = [1, 32]"] ;
69 -> 70 ;
71 [label="X[1] <= -0.338\ngini = 0.444\nsamples = 3\nvalue = [1, 2]"] ;
70 -> 71 ;
72 [label="gini = 0.0\nsamples = 1\nvalue = [1, 0]"] ;
71 -> 72 ;
73 [label="gini = 0.0\nsamples = 2\nvalue = [0, 2]"] ;
71 -> 73 ;
74 [label="gini = 0.0\nsamples = 30\nvalue = [0, 30]"] ;
70 -> 74 ;
75 [label="X[3] <= 0.529\ngini = 0.444\nsamples = 18\nvalue = [6, 12]"] ;
69 -> 75 ;
76 [label="X[2] <= 3.959\ngini = 0.496\nsamples = 11\nvalue = [6, 5]"] ;
75 -> 76 ;
77 [label="X[2] <= -22.155\ngini = 0.375\nsamples = 8\nvalue = [6, 2]"] ;
76 -> 77 ;
78 [label="gini = 0.0\nsamples = 1\nvalue = [0, 1]"] ;
77 -> 78 ;
79 [label="X[4] <= 2.171\ngini = 0.245\nsamples = 7\nvalue = [6, 1]"] ;
77 -> 79 ;
80 [label="gini = 0.0\nsamples = 6\nvalue = [6, 0]"] ;
79 -> 80 ;
81 [label="gini = 0.0\nsamples = 1\nvalue = [0, 1]"] ;
79 -> 81 ;
82 [label="gini = 0.0\nsamples = 3\nvalue = [0, 3]"] ;
76 -> 82 ;
83 [label="gini = 0.0\nsamples = 7\nvalue = [0, 7]"] ;
75 -> 83 ;
84 [label="X[4] <= 0.311\ngini = 0.496\nsamples = 676\nvalue = [370, 306]"] ;
0 -> 84 [labeldistance=2.5, labelangle=-45, headlabel="False"] ;
85 [label="X[1] <= 0.026\ngini = 0.5\nsamples = 432\nvalue = [210, 222]"] ;
84 -> 85 ;
86 [label="X[1] <= -2.092\ngini = 0.496\nsamples = 274\nvalue = [149, 125]"] ;
85 -> 86 ;
87 [label="X[1] <= -2.248\ngini = 0.198\nsamples = 9\nvalue = [8, 1]"] ;
86 -> 87 ;
88 [label="X[2] <= 25.418\ngini = 0.5\nsamples = 2\nvalue = [1, 1]"] ;
87 -> 88 ;
89 [label="gini = 0.0\nsamples = 1\nvalue = [0, 1]"] ;
88 -> 89 ;
90 [label="gini = 0.0\nsamples = 1\nvalue = [1, 0]"] ;
88 -> 90 ;
91 [label="gini = 0.0\nsamples = 7\nvalue = [7, 0]"] ;
87 -> 91 ;
92 [label="X[1] <= -1.995\ngini = 0.498\nsamples = 265\nvalue = [141, 124]"] ;
86 -> 92 ;
93 [label="gini = 0.0\nsamples = 7\nvalue = [0, 7]"] ;
92 -> 93 ;
94 [label="X[1] <= -1.707\ngini = 0.496\nsamples = 258\nvalue = [141, 117]"] ;
92 -> 94 ;
95 [label="X[3] <= 0.376\ngini = 0.165\nsamples = 11\nvalue = [10, 1]"] ;
94 -> 95 ;
96 [label="X[5] <= -0.395\ngini = 0.5\nsamples = 2\nvalue = [1, 1]"] ;
95 -> 96 ;
97 [label="gini = 0.0\nsamples = 1\nvalue = [1, 0]"] ;
96 -> 97 ;
98 [label="gini = 0.0\nsamples = 1\nvalue = [0, 1]"] ;
96 -> 98 ;
99 [label="gini = 0.0\nsamples = 9\nvalue = [9, 0]"] ;
95 -> 99 ;
100 [label="X[1] <= -1.492\ngini = 0.498\nsamples = 247\nvalue = [131, 116]"] ;
94 -> 100 ;
101 [label="X[4] <= -0.329\ngini = 0.391\nsamples = 15\nvalue = [4, 11]"] ;
100 -> 101 ;
102 [label="gini = 0.0\nsamples = 7\nvalue = [0, 7]"] ;
101 -> 102 ;
103 [label="X[4] <= 0.017\ngini = 0.5\nsamples = 8\nvalue = [4, 4]"] ;
101 -> 103 ;
104 [label="X[1] <= -1.519\ngini = 0.444\nsamples = 6\nvalue = [4, 2]"] ;
103 -> 104 ;
105 [label="gini = 0.0\nsamples = 4\nvalue = [4, 0]"] ;
104 -> 105 ;
106 [label="gini = 0.0\nsamples = 2\nvalue = [0, 2]"] ;
104 -> 106 ;
107 [label="gini = 0.0\nsamples = 2\nvalue = [0, 2]"] ;
103 -> 107 ;
108 [label="X[1] <= -1.318\ngini = 0.496\nsamples = 232\nvalue = [127, 105]"] ;
100 -> 108 ;
109 [label="X[2] <= 16.296\ngini = 0.245\nsamples = 14\nvalue = [12, 2]"] ;
108 -> 109 ;
110 [label="gini = 0.0\nsamples = 1\nvalue = [0, 1]"] ;
109 -> 110 ;
111 [label="X[4] <= -0.466\ngini = 0.142\nsamples = 13\nvalue = [12, 1]"] ;
109 -> 111 ;
112 [label="X[5] <= -0.408\ngini = 0.5\nsamples = 2\nvalue = [1, 1]"] ;
111 -> 112 ;
113 [label="gini = 0.0\nsamples = 1\nvalue = [0, 1]"] ;
112 -> 113 ;
114 [label="gini = 0.0\nsamples = 1\nvalue = [1, 0]"] ;
112 -> 114 ;
115 [label="gini = 0.0\nsamples = 11\nvalue = [11, 0]"] ;
111 -> 115 ;
116 [label="X[1] <= -0.573\ngini = 0.498\nsamples = 218\nvalue = [115, 103]"] ;
108 -> 116 ;
117 [label="X[5] <= -0.042\ngini = 0.498\nsamples = 116\nvalue = [54, 62]"] ;
116 -> 117 ;
118 [label="X[5] <= -0.493\ngini = 0.488\nsamples = 95\nvalue = [40, 55]"] ;
117 -> 118 ;
119 [label="X[4] <= -0.787\ngini = 0.496\nsamples = 33\nvalue = [18, 15]"] ;
118 -> 119 ;
120 [label="gini = 0.0\nsamples = 4\nvalue = [0, 4]"] ;
119 -> 120 ;
121 [label="X[4] <= -0.587\ngini = 0.471\nsamples = 29\nvalue = [18, 11]"] ;
119 -> 121 ;
122 [label="X[4] <= -0.611\ngini = 0.493\nsamples = 25\nvalue = [14, 11]"] ;
121 -> 122 ;
123 [label="X[3] <= 0.488\ngini = 0.444\nsamples = 21\nvalue = [14, 7]"] ;
122 -> 123 ;
124 [label="X[5] <= -0.581\ngini = 0.5\nsamples = 12\nvalue = [6, 6]"] ;
123 -> 124 ;
125 [label="X[2] <= 56.436\ngini = 0.375\nsamples = 8\nvalue = [2, 6]"] ;
124 -> 125 ;
126 [label="gini = 0.0\nsamples = 5\nvalue = [0, 5]"] ;
125 -> 126 ;
127 [label="X[3] <= 0.451\ngini = 0.444\nsamples = 3\nvalue = [2, 1]"] ;
125 -> 127 ;
128 [label="gini = 0.0\nsamples = 2\nvalue = [2, 0]"] ;
127 -> 128 ;
129 [label="gini = 0.0\nsamples = 1\nvalue = [0, 1]"] ;
127 -> 129 ;
130 [label="gini = 0.0\nsamples = 4\nvalue = [4, 0]"] ;
124 -> 130 ;
131 [label="X[3] <= 0.594\ngini = 0.198\nsamples = 9\nvalue = [8, 1]"] ;
123 -> 131 ;
132 [label="gini = 0.0\nsamples = 7\nvalue = [7, 0]"] ;
131 -> 132 ;
133 [label="X[5] <= -0.585\ngini = 0.5\nsamples = 2\nvalue = [1, 1]"] ;
131 -> 133 ;
134 [label="gini = 0.0\nsamples = 1\nvalue = [0, 1]"] ;
133 -> 134 ;
135 [label="gini = 0.0\nsamples = 1\nvalue = [1, 0]"] ;
133 -> 135 ;
136 [label="gini = 0.0\nsamples = 4\nvalue = [0, 4]"] ;
122 -> 136 ;
137 [label="gini = 0.0\nsamples = 4\nvalue = [4, 0]"] ;
121 -> 137 ;
138 [label="X[1] <= -0.722\ngini = 0.458\nsamples = 62\nvalue = [22, 40]"] ;
118 -> 138 ;
139 [label="X[1] <= -0.758\ngini = 0.485\nsamples = 46\nvalue = [19, 27]"] ;
138 -> 139 ;
140 [label="X[3] <= 0.516\ngini = 0.474\nsamples = 44\nvalue = [17, 27]"] ;
139 -> 140 ;
141 [label="X[3] <= 0.42\ngini = 0.496\nsamples = 33\nvalue = [15, 18]"] ;
140 -> 141 ;
142 [label="X[1] <= -1.304\ngini = 0.415\nsamples = 17\nvalue = [5, 12]"] ;
141 -> 142 ;
143 [label="gini = 0.0\nsamples = 1\nvalue = [1, 0]"] ;
142 -> 143 ;
144 [label="X[2] <= 17.28\ngini = 0.375\nsamples = 16\nvalue = [4, 12]"] ;
142 -> 144 ;
145 [label="gini = 0.0\nsamples = 1\nvalue = [1, 0]"] ;
144 -> 145 ;
146 [label="X[3] <= 0.372\ngini = 0.32\nsamples = 15\nvalue = [3, 12]"] ;
144 -> 146 ;
147 [label="gini = 0.0\nsamples = 6\nvalue = [0, 6]"] ;
146 -> 147 ;
148 [label="X[0] <= 47.309\ngini = 0.444\nsamples = 9\nvalue = [3, 6]"] ;
146 -> 148 ;
149 [label="X[5] <= -0.4\ngini = 0.48\nsamples = 5\nvalue = [3, 2]"] ;
148 -> 149 ;
150 [label="gini = 0.0\nsamples = 2\nvalue = [2, 0]"] ;
149 -> 150 ;
151 [label="X[1] <= -0.951\ngini = 0.444\nsamples = 3\nvalue = [1, 2]"] ;
149 -> 151 ;
152 [label="gini = 0.0\nsamples = 2\nvalue = [0, 2]"] ;
151 -> 152 ;
153 [label="gini = 0.0\nsamples = 1\nvalue = [1, 0]"] ;
151 -> 153 ;
154 [label="gini = 0.0\nsamples = 4\nvalue = [0, 4]"] ;
148 -> 154 ;
155 [label="X[3] <= 0.478\ngini = 0.469\nsamples = 16\nvalue = [10, 6]"] ;
141 -> 155 ;
156 [label="X[5] <= -0.452\ngini = 0.219\nsamples = 8\nvalue = [7, 1]"] ;
155 -> 156 ;
157 [label="gini = 0.0\nsamples = 1\nvalue = [0, 1]"] ;
156 -> 157 ;
158 [label="gini = 0.0\nsamples = 7\nvalue = [7, 0]"] ;
156 -> 158 ;
159 [label="X[1] <= -1.126\ngini = 0.469\nsamples = 8\nvalue = [3, 5]"] ;
155 -> 159 ;
160 [label="gini = 0.0\nsamples = 3\nvalue = [0, 3]"] ;
159 -> 160 ;
161 [label="X[2] <= 27.385\ngini = 0.48\nsamples = 5\nvalue = [3, 2]"] ;
159 -> 161 ;
162 [label="gini = 0.0\nsamples = 2\nvalue = [2, 0]"] ;
161 -> 162 ;
163 [label="X[0] <= 49.814\ngini = 0.444\nsamples = 3\nvalue = [1, 2]"] ;
161 -> 163 ;
164 [label="gini = 0.0\nsamples = 1\nvalue = [1, 0]"] ;
163 -> 164 ;
165 [label="gini = 0.0\nsamples = 2\nvalue = [0, 2]"] ;
163 -> 165 ;
166 [label="X[2] <= 26.705\ngini = 0.298\nsamples = 11\nvalue = [2, 9]"] ;
140 -> 166 ;
167 [label="X[2] <= 23.621\ngini = 0.48\nsamples = 5\nvalue = [2, 3]"] ;
166 -> 167 ;
168 [label="gini = 0.0\nsamples = 3\nvalue = [0, 3]"] ;
167 -> 168 ;
169 [label="gini = 0.0\nsamples = 2\nvalue = [2, 0]"] ;
167 -> 169 ;
170 [label="gini = 0.0\nsamples = 6\nvalue = [0, 6]"] ;
166 -> 170 ;
171 [label="gini = 0.0\nsamples = 2\nvalue = [2, 0]"] ;
139 -> 171 ;
172 [label="X[3] <= 0.6\ngini = 0.305\nsamples = 16\nvalue = [3, 13]"] ;
138 -> 172 ;
173 [label="X[3] <= 0.363\ngini = 0.133\nsamples = 14\nvalue = [1, 13]"] ;
172 -> 173 ;
174 [label="gini = 0.0\nsamples = 1\nvalue = [1, 0]"] ;
173 -> 174 ;
175 [label="gini = 0.0\nsamples = 13\nvalue = [0, 13]"] ;
173 -> 175 ;
176 [label="gini = 0.0\nsamples = 2\nvalue = [2, 0]"] ;
172 -> 176 ;
177 [label="X[4] <= 0.182\ngini = 0.444\nsamples = 21\nvalue = [14, 7]"] ;
117 -> 177 ;
178 [label="X[2] <= 59.764\ngini = 0.388\nsamples = 19\nvalue = [14, 5]"] ;
177 -> 178 ;
179 [label="X[1] <= -0.957\ngini = 0.5\nsamples = 8\nvalue = [4, 4]"] ;
178 -> 179 ;
180 [label="X[4] <= 0.098\ngini = 0.32\nsamples = 5\nvalue = [1, 4]"] ;
179 -> 180 ;
181 [label="gini = 0.0\nsamples = 3\nvalue = [0, 3]"] ;
180 -> 181 ;
182 [label="X[3] <= 0.519\ngini = 0.5\nsamples = 2\nvalue = [1, 1]"] ;
180 -> 182 ;
183 [label="gini = 0.0\nsamples = 1\nvalue = [1, 0]"] ;
182 -> 183 ;
184 [label="gini = 0.0\nsamples = 1\nvalue = [0, 1]"] ;
182 -> 184 ;
185 [label="gini = 0.0\nsamples = 3\nvalue = [3, 0]"] ;
179 -> 185 ;
186 [label="X[1] <= -0.682\ngini = 0.165\nsamples = 11\nvalue = [10, 1]"] ;
178 -> 186 ;
187 [label="gini = 0.0\nsamples = 9\nvalue = [9, 0]"] ;
186 -> 187 ;
188 [label="X[3] <= 0.503\ngini = 0.5\nsamples = 2\nvalue = [1, 1]"] ;
186 -> 188 ;
189 [label="gini = 0.0\nsamples = 1\nvalue = [1, 0]"] ;
188 -> 189 ;
190 [label="gini = 0.0\nsamples = 1\nvalue = [0, 1]"] ;
188 -> 190 ;
191 [label="gini = 0.0\nsamples = 2\nvalue = [0, 2]"] ;
177 -> 191 ;
192 [label="X[5] <= 0.204\ngini = 0.481\nsamples = 102\nvalue = [61, 41]"] ;
116 -> 192 ;
193 [label="X[1] <= -0.509\ngini = 0.473\nsamples = 99\nvalue = [61, 38]"] ;
192 -> 193 ;
194 [label="gini = 0.0\nsamples = 6\nvalue = [6, 0]"] ;
193 -> 194 ;
195 [label="X[4] <= -0.38\ngini = 0.483\nsamples = 93\nvalue = [55, 38]"] ;
193 -> 195 ;
196 [label="X[3] <= 0.362\ngini = 0.436\nsamples = 56\nvalue = [38, 18]"] ;
195 -> 196 ;
197 [label="X[1] <= -0.106\ngini = 0.32\nsamples = 5\nvalue = [1, 4]"] ;
196 -> 197 ;
198 [label="gini = 0.0\nsamples = 4\nvalue = [0, 4]"] ;
197 -> 198 ;
199 [label="gini = 0.0\nsamples = 1\nvalue = [1, 0]"] ;
197 -> 199 ;
200 [label="X[4] <= -0.602\ngini = 0.398\nsamples = 51\nvalue = [37, 14]"] ;
196 -> 200 ;
201 [label="X[4] <= -0.659\ngini = 0.491\nsamples = 23\nvalue = [13, 10]"] ;
200 -> 201 ;
202 [label="X[2] <= 84.296\ngini = 0.375\nsamples = 16\nvalue = [12, 4]"] ;
201 -> 202 ;
203 [label="X[3] <= 0.552\ngini = 0.245\nsamples = 14\nvalue = [12, 2]"] ;
202 -> 203 ;
204 [label="X[4] <= -0.665\ngini = 0.153\nsamples = 12\nvalue = [11, 1]"] ;
203 -> 204 ;
205 [label="gini = 0.0\nsamples = 10\nvalue = [10, 0]"] ;
204 -> 205 ;
206 [label="X[1] <= -0.408\ngini = 0.5\nsamples = 2\nvalue = [1, 1]"] ;
204 -> 206 ;
207 [label="gini = 0.0\nsamples = 1\nvalue = [0, 1]"] ;
206 -> 207 ;
208 [label="gini = 0.0\nsamples = 1\nvalue = [1, 0]"] ;
206 -> 208 ;
209 [label="X[2] <= 48.855\ngini = 0.5\nsamples = 2\nvalue = [1, 1]"] ;
203 -> 209 ;
210 [label="gini = 0.0\nsamples = 1\nvalue = [1, 0]"] ;
209 -> 210 ;
211 [label="gini = 0.0\nsamples = 1\nvalue = [0, 1]"] ;
209 -> 211 ;
212 [label="gini = 0.0\nsamples = 2\nvalue = [0, 2]"] ;
202 -> 212 ;
213 [label="X[3] <= 0.447\ngini = 0.245\nsamples = 7\nvalue = [1, 6]"] ;
201 -> 213 ;
214 [label="gini = 0.0\nsamples = 1\nvalue = [1, 0]"] ;
213 -> 214 ;
215 [label="gini = 0.0\nsamples = 6\nvalue = [0, 6]"] ;
213 -> 215 ;
216 [label="X[2] <= 17.539\ngini = 0.245\nsamples = 28\nvalue = [24, 4]"] ;
200 -> 216 ;
217 [label="gini = 0.0\nsamples = 1\nvalue = [0, 1]"] ;
216 -> 217 ;
218 [label="X[2] <= 112.36\ngini = 0.198\nsamples = 27\nvalue = [24, 3]"] ;
216 -> 218 ;
219 [label="X[5] <= -0.41\ngini = 0.147\nsamples = 25\nvalue = [23, 2]"] ;
218 -> 219 ;
220 [label="gini = 0.0\nsamples = 14\nvalue = [14, 0]"] ;
219 -> 220 ;
221 [label="X[4] <= -0.444\ngini = 0.298\nsamples = 11\nvalue = [9, 2]"] ;
219 -> 221 ;
222 [label="X[3] <= 0.455\ngini = 0.444\nsamples = 3\nvalue = [1, 2]"] ;
221 -> 222 ;
223 [label="gini = 0.0\nsamples = 1\nvalue = [1, 0]"] ;
222 -> 223 ;
224 [label="gini = 0.0\nsamples = 2\nvalue = [0, 2]"] ;
222 -> 224 ;
225 [label="gini = 0.0\nsamples = 8\nvalue = [8, 0]"] ;
221 -> 225 ;
226 [label="X[2] <= 122.795\ngini = 0.5\nsamples = 2\nvalue = [1, 1]"] ;
218 -> 226 ;
227 [label="gini = 0.0\nsamples = 1\nvalue = [0, 1]"] ;
226 -> 227 ;
228 [label="gini = 0.0\nsamples = 1\nvalue = [1, 0]"] ;
226 -> 228 ;
229 [label="X[3] <= 0.458\ngini = 0.497\nsamples = 37\nvalue = [17, 20]"] ;
195 -> 229 ;
230 [label="X[3] <= 0.338\ngini = 0.455\nsamples = 20\nvalue = [13, 7]"] ;
229 -> 230 ;
231 [label="gini = 0.0\nsamples = 2\nvalue = [0, 2]"] ;
230 -> 231 ;
232 [label="X[0] <= 45.375\ngini = 0.401\nsamples = 18\nvalue = [13, 5]"] ;
230 -> 232 ;
233 [label="gini = 0.0\nsamples = 2\nvalue = [0, 2]"] ;
232 -> 233 ;
234 [label="X[2] <= 22.879\ngini = 0.305\nsamples = 16\nvalue = [13, 3]"] ;
232 -> 234 ;
235 [label="gini = 0.0\nsamples = 2\nvalue = [0, 2]"] ;
234 -> 235 ;
236 [label="X[3] <= 0.38\ngini = 0.133\nsamples = 14\nvalue = [13, 1]"] ;
234 -> 236 ;
237 [label="X[3] <= 0.372\ngini = 0.32\nsamples = 5\nvalue = [4, 1]"] ;
236 -> 237 ;
238 [label="gini = 0.0\nsamples = 4\nvalue = [4, 0]"] ;
237 -> 238 ;
239 [label="gini = 0.0\nsamples = 1\nvalue = [0, 1]"] ;
237 -> 239 ;
240 [label="gini = 0.0\nsamples = 9\nvalue = [9, 0]"] ;
236 -> 240 ;
241 [label="X[4] <= -0.173\ngini = 0.36\nsamples = 17\nvalue = [4, 13]"] ;
229 -> 241 ;
242 [label="gini = 0.0\nsamples = 7\nvalue = [0, 7]"] ;
241 -> 242 ;
243 [label="X[4] <= -0.151\ngini = 0.48\nsamples = 10\nvalue = [4, 6]"] ;
241 -> 243 ;
244 [label="gini = 0.0\nsamples = 1\nvalue = [1, 0]"] ;
243 -> 244 ;
245 [label="X[1] <= -0.383\ngini = 0.444\nsamples = 9\nvalue = [3, 6]"] ;
243 -> 245 ;
246 [label="gini = 0.0\nsamples = 1\nvalue = [1, 0]"] ;
245 -> 246 ;
247 [label="X[5] <= 0.125\ngini = 0.375\nsamples = 8\nvalue = [2, 6]"] ;
245 -> 247 ;
248 [label="X[2] <= 30.843\ngini = 0.245\nsamples = 7\nvalue = [1, 6]"] ;
247 -> 248 ;
249 [label="X[5] <= -0.037\ngini = 0.5\nsamples = 2\nvalue = [1, 1]"] ;
248 -> 249 ;
250 [label="gini = 0.0\nsamples = 1\nvalue = [1, 0]"] ;
249 -> 250 ;
251 [label="gini = 0.0\nsamples = 1\nvalue = [0, 1]"] ;
249 -> 251 ;
252 [label="gini = 0.0\nsamples = 5\nvalue = [0, 5]"] ;
248 -> 252 ;
253 [label="gini = 0.0\nsamples = 1\nvalue = [1, 0]"] ;
247 -> 253 ;
254 [label="gini = 0.0\nsamples = 3\nvalue = [0, 3]"] ;
192 -> 254 ;
255 [label="X[5] <= 0.314\ngini = 0.474\nsamples = 158\nvalue = [61, 97]"] ;
85 -> 255 ;
256 [label="X[4] <= 0.113\ngini = 0.482\nsamples = 151\nvalue = [61, 90]"] ;
255 -> 256 ;
257 [label="X[0] <= 50.752\ngini = 0.46\nsamples = 117\nvalue = [42, 75]"] ;
256 -> 257 ;
258 [label="X[5] <= -0.113\ngini = 0.489\nsamples = 75\nvalue = [32, 43]"] ;
257 -> 258 ;
259 [label="X[1] <= 1.148\ngini = 0.473\nsamples = 65\nvalue = [25, 40]"] ;
258 -> 259 ;
260 [label="X[4] <= -0.263\ngini = 0.464\nsamples = 63\nvalue = [23, 40]"] ;
259 -> 260 ;
261 [label="X[3] <= 0.579\ngini = 0.49\nsamples = 49\nvalue = [21, 28]"] ;
260 -> 261 ;
262 [label="X[2] <= 14.58\ngini = 0.459\nsamples = 42\nvalue = [15, 27]"] ;
261 -> 262 ;
263 [label="gini = 0.0\nsamples = 2\nvalue = [2, 0]"] ;
262 -> 263 ;
264 [label="X[1] <= 0.446\ngini = 0.439\nsamples = 40\nvalue = [13, 27]"] ;
262 -> 264 ;
265 [label="X[3] <= 0.509\ngini = 0.365\nsamples = 25\nvalue = [6, 19]"] ;
264 -> 265 ;
266 [label="X[0] <= 50.334\ngini = 0.255\nsamples = 20\nvalue = [3, 17]"] ;
265 -> 266 ;
267 [label="X[4] <= -0.494\ngini = 0.198\nsamples = 18\nvalue = [2, 16]"] ;
266 -> 267 ;
268 [label="gini = 0.0\nsamples = 12\nvalue = [0, 12]"] ;
267 -> 268 ;
269 [label="X[4] <= -0.413\ngini = 0.444\nsamples = 6\nvalue = [2, 4]"] ;
267 -> 269 ;
270 [label="X[1] <= 0.289\ngini = 0.444\nsamples = 3\nvalue = [2, 1]"] ;
269 -> 270 ;
271 [label="gini = 0.0\nsamples = 2\nvalue = [2, 0]"] ;
270 -> 271 ;
272 [label="gini = 0.0\nsamples = 1\nvalue = [0, 1]"] ;
270 -> 272 ;
273 [label="gini = 0.0\nsamples = 3\nvalue = [0, 3]"] ;
269 -> 273 ;
274 [label="X[5] <= -0.376\ngini = 0.5\nsamples = 2\nvalue = [1, 1]"] ;
266 -> 274 ;
275 [label="gini = 0.0\nsamples = 1\nvalue = [1, 0]"] ;
274 -> 275 ;
276 [label="gini = 0.0\nsamples = 1\nvalue = [0, 1]"] ;
274 -> 276 ;
277 [label="X[5] <= -0.419\ngini = 0.48\nsamples = 5\nvalue = [3, 2]"] ;
265 -> 277 ;
278 [label="X[1] <= 0.111\ngini = 0.444\nsamples = 3\nvalue = [1, 2]"] ;
277 -> 278 ;
279 [label="gini = 0.0\nsamples = 1\nvalue = [1, 0]"] ;
278 -> 279 ;
280 [label="gini = 0.0\nsamples = 2\nvalue = [0, 2]"] ;
278 -> 280 ;
281 [label="gini = 0.0\nsamples = 2\nvalue = [2, 0]"] ;
277 -> 281 ;
282 [label="X[2] <= 69.407\ngini = 0.498\nsamples = 15\nvalue = [7, 8]"] ;
264 -> 282 ;
283 [label="X[2] <= 34.482\ngini = 0.42\nsamples = 10\nvalue = [7, 3]"] ;
282 -> 283 ;
284 [label="X[5] <= -0.342\ngini = 0.5\nsamples = 6\nvalue = [3, 3]"] ;
283 -> 284 ;
285 [label="X[3] <= 0.421\ngini = 0.375\nsamples = 4\nvalue = [3, 1]"] ;
284 -> 285 ;
286 [label="gini = 0.0\nsamples = 1\nvalue = [0, 1]"] ;
285 -> 286 ;
287 [label="gini = 0.0\nsamples = 3\nvalue = [3, 0]"] ;
285 -> 287 ;
288 [label="gini = 0.0\nsamples = 2\nvalue = [0, 2]"] ;
284 -> 288 ;
289 [label="gini = 0.0\nsamples = 4\nvalue = [4, 0]"] ;
283 -> 289 ;
290 [label="gini = 0.0\nsamples = 5\nvalue = [0, 5]"] ;
282 -> 290 ;
291 [label="X[1] <= 0.47\ngini = 0.245\nsamples = 7\nvalue = [6, 1]"] ;
261 -> 291 ;
292 [label="gini = 0.0\nsamples = 4\nvalue = [4, 0]"] ;
291 -> 292 ;
293 [label="X[0] <= 50.137\ngini = 0.444\nsamples = 3\nvalue = [2, 1]"] ;
291 -> 293 ;
294 [label="gini = 0.0\nsamples = 1\nvalue = [0, 1]"] ;
293 -> 294 ;
295 [label="gini = 0.0\nsamples = 2\nvalue = [2, 0]"] ;
293 -> 295 ;
296 [label="X[3] <= 0.335\ngini = 0.245\nsamples = 14\nvalue = [2, 12]"] ;
260 -> 296 ;
297 [label="gini = 0.0\nsamples = 1\nvalue = [1, 0]"] ;
296 -> 297 ;
298 [label="X[3] <= 0.445\ngini = 0.142\nsamples = 13\nvalue = [1, 12]"] ;
296 -> 298 ;
299 [label="X[2] <= 75.577\ngini = 0.375\nsamples = 4\nvalue = [1, 3]"] ;
298 -> 299 ;
300 [label="gini = 0.0\nsamples = 3\nvalue = [0, 3]"] ;
299 -> 300 ;
301 [label="gini = 0.0\nsamples = 1\nvalue = [1, 0]"] ;
299 -> 301 ;
302 [label="gini = 0.0\nsamples = 9\nvalue = [0, 9]"] ;
298 -> 302 ;
303 [label="gini = 0.0\nsamples = 2\nvalue = [2, 0]"] ;
259 -> 303 ;
304 [label="X[4] <= -0.004\ngini = 0.42\nsamples = 10\nvalue = [7, 3]"] ;
258 -> 304 ;
305 [label="gini = 0.0\nsamples = 4\nvalue = [4, 0]"] ;
304 -> 305 ;
306 [label="X[2] <= 60.284\ngini = 0.5\nsamples = 6\nvalue = [3, 3]"] ;
304 -> 306 ;
307 [label="gini = 0.0\nsamples = 2\nvalue = [0, 2]"] ;
306 -> 307 ;
308 [label="X[0] <= 48.545\ngini = 0.375\nsamples = 4\nvalue = [3, 1]"] ;
306 -> 308 ;
309 [label="gini = 0.0\nsamples = 3\nvalue = [3, 0]"] ;
308 -> 309 ;
310 [label="gini = 0.0\nsamples = 1\nvalue = [0, 1]"] ;
308 -> 310 ;
311 [label="X[2] <= 28.49\ngini = 0.363\nsamples = 42\nvalue = [10, 32]"] ;
257 -> 311 ;
312 [label="X[5] <= 0.001\ngini = 0.48\nsamples = 5\nvalue = [3, 2]"] ;
311 -> 312 ;
313 [label="gini = 0.0\nsamples = 2\nvalue = [0, 2]"] ;
312 -> 313 ;
314 [label="gini = 0.0\nsamples = 3\nvalue = [3, 0]"] ;
312 -> 314 ;
315 [label="X[4] <= -0.035\ngini = 0.307\nsamples = 37\nvalue = [7, 30]"] ;
311 -> 315 ;
316 [label="X[4] <= -0.105\ngini = 0.444\nsamples = 18\nvalue = [6, 12]"] ;
315 -> 316 ;
317 [label="X[2] <= 38.926\ngini = 0.32\nsamples = 15\nvalue = [3, 12]"] ;
316 -> 317 ;
318 [label="gini = 0.0\nsamples = 1\nvalue = [1, 0]"] ;
317 -> 318 ;
319 [label="X[3] <= 0.417\ngini = 0.245\nsamples = 14\nvalue = [2, 12]"] ;
317 -> 319 ;
320 [label="gini = 0.0\nsamples = 1\nvalue = [1, 0]"] ;
319 -> 320 ;
321 [label="X[3] <= 0.507\ngini = 0.142\nsamples = 13\nvalue = [1, 12]"] ;
319 -> 321 ;
322 [label="X[2] <= 68.497\ngini = 0.444\nsamples = 3\nvalue = [1, 2]"] ;
321 -> 322 ;
323 [label="gini = 0.0\nsamples = 1\nvalue = [1, 0]"] ;
322 -> 323 ;
324 [label="gini = 0.0\nsamples = 2\nvalue = [0, 2]"] ;
322 -> 324 ;
325 [label="gini = 0.0\nsamples = 10\nvalue = [0, 10]"] ;
321 -> 325 ;
326 [label="gini = 0.0\nsamples = 3\nvalue = [3, 0]"] ;
316 -> 326 ;
327 [label="X[1] <= 0.46\ngini = 0.1\nsamples = 19\nvalue = [1, 18]"] ;
315 -> 327 ;
328 [label="X[4] <= 0.008\ngini = 0.5\nsamples = 2\nvalue = [1, 1]"] ;
327 -> 328 ;
329 [label="gini = 0.0\nsamples = 1\nvalue = [0, 1]"] ;
328 -> 329 ;
330 [label="gini = 0.0\nsamples = 1\nvalue = [1, 0]"] ;
328 -> 330 ;
331 [label="gini = 0.0\nsamples = 17\nvalue = [0, 17]"] ;
327 -> 331 ;
332 [label="X[5] <= 0.233\ngini = 0.493\nsamples = 34\nvalue = [19, 15]"] ;
256 -> 332 ;
333 [label="X[2] <= 57.846\ngini = 0.497\nsamples = 28\nvalue = [13, 15]"] ;
332 -> 333 ;
334 [label="gini = 0.0\nsamples = 7\nvalue = [0, 7]"] ;
333 -> 334 ;
335 [label="X[4] <= 0.157\ngini = 0.472\nsamples = 21\nvalue = [13, 8]"] ;
333 -> 335 ;
336 [label="gini = 0.0\nsamples = 7\nvalue = [7, 0]"] ;
335 -> 336 ;
337 [label="X[3] <= 0.509\ngini = 0.49\nsamples = 14\nvalue = [6, 8]"] ;
335 -> 337 ;
338 [label="gini = 0.0\nsamples = 3\nvalue = [3, 0]"] ;
337 -> 338 ;
339 [label="X[0] <= 50.009\ngini = 0.397\nsamples = 11\nvalue = [3, 8]"] ;
337 -> 339 ;
340 [label="X[3] <= 0.571\ngini = 0.48\nsamples = 5\nvalue = [3, 2]"] ;
339 -> 340 ;
341 [label="X[2] <= 70.035\ngini = 0.444\nsamples = 3\nvalue = [1, 2]"] ;
340 -> 341 ;
342 [label="gini = 0.0\nsamples = 1\nvalue = [1, 0]"] ;
341 -> 342 ;
343 [label="gini = 0.0\nsamples = 2\nvalue = [0, 2]"] ;
341 -> 343 ;
344 [label="gini = 0.0\nsamples = 2\nvalue = [2, 0]"] ;
340 -> 344 ;
345 [label="gini = 0.0\nsamples = 6\nvalue = [0, 6]"] ;
339 -> 345 ;
346 [label="gini = 0.0\nsamples = 6\nvalue = [6, 0]"] ;
332 -> 346 ;
347 [label="gini = 0.0\nsamples = 7\nvalue = [0, 7]"] ;
255 -> 347 ;
348 [label="X[2] <= 52.54\ngini = 0.451\nsamples = 244\nvalue = [160, 84]"] ;
84 -> 348 ;
349 [label="X[4] <= 0.56\ngini = 0.5\nsamples = 78\nvalue = [40, 38]"] ;
348 -> 349 ;
350 [label="X[2] <= 46.246\ngini = 0.34\nsamples = 23\nvalue = [18, 5]"] ;
349 -> 350 ;
351 [label="X[3] <= 0.414\ngini = 0.111\nsamples = 17\nvalue = [16, 1]"] ;
350 -> 351 ;
352 [label="X[4] <= 0.44\ngini = 0.32\nsamples = 5\nvalue = [4, 1]"] ;
351 -> 352 ;
353 [label="gini = 0.0\nsamples = 4\nvalue = [4, 0]"] ;
352 -> 353 ;
354 [label="gini = 0.0\nsamples = 1\nvalue = [0, 1]"] ;
352 -> 354 ;
355 [label="gini = 0.0\nsamples = 12\nvalue = [12, 0]"] ;
351 -> 355 ;
356 [label="X[5] <= 0.41\ngini = 0.444\nsamples = 6\nvalue = [2, 4]"] ;
350 -> 356 ;
357 [label="gini = 0.0\nsamples = 3\nvalue = [0, 3]"] ;
356 -> 357 ;
358 [label="X[3] <= 0.521\ngini = 0.444\nsamples = 3\nvalue = [2, 1]"] ;
356 -> 358 ;
359 [label="gini = 0.0\nsamples = 2\nvalue = [2, 0]"] ;
358 -> 359 ;
360 [label="gini = 0.0\nsamples = 1\nvalue = [0, 1]"] ;
358 -> 360 ;
361 [label="X[2] <= 23.43\ngini = 0.48\nsamples = 55\nvalue = [22, 33]"] ;
349 -> 361 ;
362 [label="X[2] <= 18.63\ngini = 0.488\nsamples = 19\nvalue = [11, 8]"] ;
361 -> 362 ;
363 [label="X[1] <= 2.016\ngini = 0.473\nsamples = 13\nvalue = [5, 8]"] ;
362 -> 363 ;
364 [label="X[0] <= 51.791\ngini = 0.219\nsamples = 8\nvalue = [1, 7]"] ;
363 -> 364 ;
365 [label="gini = 0.0\nsamples = 1\nvalue = [1, 0]"] ;
364 -> 365 ;
366 [label="gini = 0.0\nsamples = 7\nvalue = [0, 7]"] ;
364 -> 366 ;
367 [label="X[1] <= 3.476\ngini = 0.32\nsamples = 5\nvalue = [4, 1]"] ;
363 -> 367 ;
368 [label="gini = 0.0\nsamples = 3\nvalue = [3, 0]"] ;
367 -> 368 ;
369 [label="X[4] <= 1.571\ngini = 0.5\nsamples = 2\nvalue = [1, 1]"] ;
367 -> 369 ;
370 [label="gini = 0.0\nsamples = 1\nvalue = [0, 1]"] ;
369 -> 370 ;
371 [label="gini = 0.0\nsamples = 1\nvalue = [1, 0]"] ;
369 -> 371 ;
372 [label="gini = 0.0\nsamples = 6\nvalue = [6, 0]"] ;
362 -> 372 ;
373 [label="X[3] <= 0.456\ngini = 0.424\nsamples = 36\nvalue = [11, 25]"] ;
361 -> 373 ;
374 [label="X[3] <= 0.444\ngini = 0.499\nsamples = 19\nvalue = [9, 10]"] ;
373 -> 374 ;
375 [label="X[2] <= 42.704\ngini = 0.444\nsamples = 15\nvalue = [5, 10]"] ;
374 -> 375 ;
376 [label="X[4] <= 0.894\ngini = 0.198\nsamples = 9\nvalue = [1, 8]"] ;
375 -> 376 ;
377 [label="X[3] <= 0.402\ngini = 0.5\nsamples = 2\nvalue = [1, 1]"] ;
376 -> 377 ;
378 [label="gini = 0.0\nsamples = 1\nvalue = [1, 0]"] ;
377 -> 378 ;
379 [label="gini = 0.0\nsamples = 1\nvalue = [0, 1]"] ;
377 -> 379 ;
380 [label="gini = 0.0\nsamples = 7\nvalue = [0, 7]"] ;
376 -> 380 ;
381 [label="X[2] <= 44.655\ngini = 0.444\nsamples = 6\nvalue = [4, 2]"] ;
375 -> 381 ;
382 [label="gini = 0.0\nsamples = 3\nvalue = [3, 0]"] ;
381 -> 382 ;
383 [label="X[3] <= 0.4\ngini = 0.444\nsamples = 3\nvalue = [1, 2]"] ;
381 -> 383 ;
384 [label="gini = 0.0\nsamples = 2\nvalue = [0, 2]"] ;
383 -> 384 ;
385 [label="gini = 0.0\nsamples = 1\nvalue = [1, 0]"] ;
383 -> 385 ;
386 [label="gini = 0.0\nsamples = 4\nvalue = [4, 0]"] ;
374 -> 386 ;
387 [label="X[1] <= -1.959\ngini = 0.208\nsamples = 17\nvalue = [2, 15]"] ;
373 -> 387 ;
388 [label="gini = 0.0\nsamples = 1\nvalue = [1, 0]"] ;
387 -> 388 ;
389 [label="X[1] <= 0.681\ngini = 0.117\nsamples = 16\nvalue = [1, 15]"] ;
387 -> 389 ;
390 [label="X[1] <= 0.355\ngini = 0.375\nsamples = 4\nvalue = [1, 3]"] ;
389 -> 390 ;
391 [label="gini = 0.0\nsamples = 3\nvalue = [0, 3]"] ;
390 -> 391 ;
392 [label="gini = 0.0\nsamples = 1\nvalue = [1, 0]"] ;
390 -> 392 ;
393 [label="gini = 0.0\nsamples = 12\nvalue = [0, 12]"] ;
389 -> 393 ;
394 [label="X[1] <= 4.464\ngini = 0.401\nsamples = 166\nvalue = [120, 46]"] ;
348 -> 394 ;
395 [label="X[3] <= 0.5\ngini = 0.386\nsamples = 161\nvalue = [119, 42]"] ;
394 -> 395 ;
396 [label="X[1] <= 3.169\ngini = 0.444\nsamples = 81\nvalue = [54, 27]"] ;
395 -> 396 ;
397 [label="X[3] <= 0.496\ngini = 0.413\nsamples = 72\nvalue = [51, 21]"] ;
396 -> 397 ;
398 [label="X[2] <= 89.776\ngini = 0.396\nsamples = 70\nvalue = [51, 19]"] ;
397 -> 398 ;
399 [label="X[4] <= 0.472\ngini = 0.459\nsamples = 42\nvalue = [27, 15]"] ;
398 -> 399 ;
400 [label="X[4] <= 0.361\ngini = 0.42\nsamples = 10\nvalue = [3, 7]"] ;
399 -> 400 ;
401 [label="X[3] <= 0.482\ngini = 0.48\nsamples = 5\nvalue = [3, 2]"] ;
400 -> 401 ;
402 [label="gini = 0.0\nsamples = 3\nvalue = [3, 0]"] ;
401 -> 402 ;
403 [label="gini = 0.0\nsamples = 2\nvalue = [0, 2]"] ;
401 -> 403 ;
404 [label="gini = 0.0\nsamples = 5\nvalue = [0, 5]"] ;
400 -> 404 ;
405 [label="X[2] <= 88.502\ngini = 0.375\nsamples = 32\nvalue = [24, 8]"] ;
399 -> 405 ;
406 [label="X[1] <= -0.612\ngini = 0.32\nsamples = 30\nvalue = [24, 6]"] ;
405 -> 406 ;
407 [label="X[1] <= -1.302\ngini = 0.48\nsamples = 5\nvalue = [2, 3]"] ;
406 -> 407 ;
408 [label="gini = 0.0\nsamples = 2\nvalue = [2, 0]"] ;
407 -> 408 ;
409 [label="gini = 0.0\nsamples = 3\nvalue = [0, 3]"] ;
407 -> 409 ;
410 [label="X[0] <= 55.766\ngini = 0.211\nsamples = 25\nvalue = [22, 3]"] ;
406 -> 410 ;
411 [label="gini = 0.0\nsamples = 13\nvalue = [13, 0]"] ;
410 -> 411 ;
412 [label="X[0] <= 57.493\ngini = 0.375\nsamples = 12\nvalue = [9, 3]"] ;
410 -> 412 ;
413 [label="gini = 0.0\nsamples = 1\nvalue = [0, 1]"] ;
412 -> 413 ;
414 [label="X[4] <= 0.916\ngini = 0.298\nsamples = 11\nvalue = [9, 2]"] ;
412 -> 414 ;
415 [label="gini = 0.0\nsamples = 5\nvalue = [5, 0]"] ;
414 -> 415 ;
416 [label="X[4] <= 1.079\ngini = 0.444\nsamples = 6\nvalue = [4, 2]"] ;
414 -> 416 ;
417 [label="gini = 0.0\nsamples = 2\nvalue = [0, 2]"] ;
416 -> 417 ;
418 [label="gini = 0.0\nsamples = 4\nvalue = [4, 0]"] ;
416 -> 418 ;
419 [label="gini = 0.0\nsamples = 2\nvalue = [0, 2]"] ;
405 -> 419 ;
420 [label="X[3] <= 0.457\ngini = 0.245\nsamples = 28\nvalue = [24, 4]"] ;
398 -> 420 ;
421 [label="X[3] <= 0.444\ngini = 0.375\nsamples = 16\nvalue = [12, 4]"] ;
420 -> 421 ;
422 [label="X[3] <= 0.385\ngini = 0.165\nsamples = 11\nvalue = [10, 1]"] ;
421 -> 422 ;
423 [label="X[1] <= 0.594\ngini = 0.375\nsamples = 4\nvalue = [3, 1]"] ;
422 -> 423 ;
424 [label="gini = 0.0\nsamples = 3\nvalue = [3, 0]"] ;
423 -> 424 ;
425 [label="gini = 0.0\nsamples = 1\nvalue = [0, 1]"] ;
423 -> 425 ;
426 [label="gini = 0.0\nsamples = 7\nvalue = [7, 0]"] ;
422 -> 426 ;
427 [label="X[2] <= 109.554\ngini = 0.48\nsamples = 5\nvalue = [2, 3]"] ;
421 -> 427 ;
428 [label="gini = 0.0\nsamples = 3\nvalue = [0, 3]"] ;
427 -> 428 ;
429 [label="gini = 0.0\nsamples = 2\nvalue = [2, 0]"] ;
427 -> 429 ;
430 [label="gini = 0.0\nsamples = 12\nvalue = [12, 0]"] ;
420 -> 430 ;
431 [label="gini = 0.0\nsamples = 2\nvalue = [0, 2]"] ;
397 -> 431 ;
432 [label="X[1] <= 3.78\ngini = 0.444\nsamples = 9\nvalue = [3, 6]"] ;
396 -> 432 ;
433 [label="X[2] <= 73.85\ngini = 0.245\nsamples = 7\nvalue = [1, 6]"] ;
432 -> 433 ;
434 [label="X[0] <= 64.169\ngini = 0.5\nsamples = 2\nvalue = [1, 1]"] ;
433 -> 434 ;
435 [label="gini = 0.0\nsamples = 1\nvalue = [1, 0]"] ;
434 -> 435 ;
436 [label="gini = 0.0\nsamples = 1\nvalue = [0, 1]"] ;
434 -> 436 ;
437 [label="gini = 0.0\nsamples = 5\nvalue = [0, 5]"] ;
433 -> 437 ;
438 [label="gini = 0.0\nsamples = 2\nvalue = [2, 0]"] ;
432 -> 438 ;
439 [label="X[5] <= 1.547\ngini = 0.305\nsamples = 80\nvalue = [65, 15]"] ;
395 -> 439 ;
440 [label="X[5] <= 0.917\ngini = 0.406\nsamples = 53\nvalue = [38, 15]"] ;
439 -> 440 ;
441 [label="X[3] <= 0.671\ngini = 0.26\nsamples = 39\nvalue = [33, 6]"] ;
440 -> 441 ;
442 [label="X[5] <= 0.331\ngini = 0.229\nsamples = 38\nvalue = [33, 5]"] ;
441 -> 442 ;
443 [label="X[4] <= 0.409\ngini = 0.49\nsamples = 7\nvalue = [4, 3]"] ;
442 -> 443 ;
444 [label="gini = 0.0\nsamples = 3\nvalue = [3, 0]"] ;
443 -> 444 ;
445 [label="X[1] <= -0.658\ngini = 0.375\nsamples = 4\nvalue = [1, 3]"] ;
443 -> 445 ;
446 [label="gini = 0.0\nsamples = 1\nvalue = [1, 0]"] ;
445 -> 446 ;
447 [label="gini = 0.0\nsamples = 3\nvalue = [0, 3]"] ;
445 -> 447 ;
448 [label="X[3] <= 0.534\ngini = 0.121\nsamples = 31\nvalue = [29, 2]"] ;
442 -> 448 ;
449 [label="X[3] <= 0.531\ngini = 0.346\nsamples = 9\nvalue = [7, 2]"] ;
448 -> 449 ;
450 [label="X[2] <= 62.041\ngini = 0.219\nsamples = 8\nvalue = [7, 1]"] ;
449 -> 450 ;
451 [label="gini = 0.0\nsamples = 1\nvalue = [0, 1]"] ;
450 -> 451 ;
452 [label="gini = 0.0\nsamples = 7\nvalue = [7, 0]"] ;
450 -> 452 ;
453 [label="gini = 0.0\nsamples = 1\nvalue = [0, 1]"] ;
449 -> 453 ;
454 [label="gini = 0.0\nsamples = 22\nvalue = [22, 0]"] ;
448 -> 454 ;
455 [label="gini = 0.0\nsamples = 1\nvalue = [0, 1]"] ;
441 -> 455 ;
456 [label="X[2] <= 60.026\ngini = 0.459\nsamples = 14\nvalue = [5, 9]"] ;
440 -> 456 ;
457 [label="gini = 0.0\nsamples = 2\nvalue = [2, 0]"] ;
456 -> 457 ;
458 [label="X[3] <= 0.523\ngini = 0.375\nsamples = 12\nvalue = [3, 9]"] ;
456 -> 458 ;
459 [label="X[4] <= 1.03\ngini = 0.444\nsamples = 3\nvalue = [2, 1]"] ;
458 -> 459 ;
460 [label="gini = 0.0\nsamples = 1\nvalue = [0, 1]"] ;
459 -> 460 ;
461 [label="gini = 0.0\nsamples = 2\nvalue = [2, 0]"] ;
459 -> 461 ;
462 [label="X[5] <= 1.064\ngini = 0.198\nsamples = 9\nvalue = [1, 8]"] ;
458 -> 462 ;
463 [label="X[0] <= 60.193\ngini = 0.5\nsamples = 2\nvalue = [1, 1]"] ;
462 -> 463 ;
464 [label="gini = 0.0\nsamples = 1\nvalue = [1, 0]"] ;
463 -> 464 ;
465 [label="gini = 0.0\nsamples = 1\nvalue = [0, 1]"] ;
463 -> 465 ;
466 [label="gini = 0.0\nsamples = 7\nvalue = [0, 7]"] ;
462 -> 466 ;
467 [label="gini = 0.0\nsamples = 27\nvalue = [27, 0]"] ;
439 -> 467 ;
468 [label="X[5] <= 3.411\ngini = 0.32\nsamples = 5\nvalue = [1, 4]"] ;
394 -> 468 ;
469 [label="gini = 0.0\nsamples = 4\nvalue = [0, 4]"] ;
468 -> 469 ;
470 [label="gini = 0.0\nsamples = 1\nvalue = [1, 0]"] ;
468 -> 470 ;
}
